svm_type c_svc
kernel_type rbf
gamma 0.5
nr_class 3
total_sv 270
rho -0.4000828015236661 -0.40763166404752366 0.095195124115395879
label 0 1 -1
nr_sv 120 73 77
SV
0.60955979473989919 0.7223296702833828 1:0.708333 2:1 3:1 4:-0.320755 5:-0.105023 6:-1 7:1 8:-0.419847 9:-1 10:-0.225806 11:1 12:-1 
0.38326741819138571 0.52208411730321591 1:1 2:0.458333 3:1 4:1 5:-0.358491 6:-0.374429 7:-1 8:-1 9:-0.480916 10:1 11:-0.935484 12:-0.333333 
0.72559782349351198 0.69485329236947424 1:1 2:0.875 3:-1 4:-0.333333 5:-0.509434 6:-0.347032 7:-1 8:1 9:-0.236641 10:1 11:-0.935484 12:-1 
0.24037087890435688 0.3006597907212149 1:-0.806452 2:-0.333333 3:0.5 4:0.25 5:1 6:1 7:-0.698113 8:-0.484018 9:-1 10:1 11:0.0839695 12:1 
0.7263490095642714 0.68214156762771172 1:-0.612903 2:0.333333 3:1 4:0.416667 5:-1 6:1 7:0.0566038 8:0.283105 9:-1 10:1 11:0.267176 12:-1 
0.48985423872620193 0.57551283000545339 1:-1 2:-1 3:1 4:-0.375 5:1 6:0.333333 7:-0.132075 8:-0.502283 9:-1 10:1 11:0.664122 12:-1 
0.36284990920072446 0.66249438058448307 1:-1 2:-0.16129 3:0.333333 4:-1 5:0.166667 6:-1 7:1 8:-0.358491 9:-0.191781 10:-1 11:1 12:0.343511 
0.46957637520762202 0.46358080112301331 1:-1 2:-1 3:-1 4:-0.333333 5:-1 6:0.75 7:-1 8:1 9:-0.660377 10:-0.894977 11:-1 12:-1 
0.58130927698350632 0.85935268037281753 1:1 2:-0.419355 3:-1 4:-1 5:-0.541667 6:1 7:-1 8:-0.132075 9:-0.666667 10:-1 11:-1 12:0.633588 
0.42365353326046329 0.61509833788755475 1:-0.114504 2:1 3:-0.16129 4:0.333333 5:1 6:-0.208333 7:1 8:-0.333333 9:-0.320755 10:-0.456621 11:-1 12:1 
0.86388783741808917 1 1:0.0992366 2:-1 3:-0.967742 4:-1 5:-1 6:-1 7:0.0416667 8:-1 9:-0.333333 10:-0.283019 11:-0.260274 12:1 
0.31559699355179499 0.95940737916498597 1:-1 2:-1 3:0.0381679 4:-1 5:-0.935484 6:-1 7:-1 8:-1 9:-0.291667 10:-1 11:1 12:-0.169811 
0.74657728042077931 0.95244573060218718 1:-0.465753 2:-1 3:1 4:0.236641 5:1 6:-1 7:-1 8:-1 9:-0.0833333 10:-1 11:0.333333 12:-0.509434 
0.43041946985065349 1 1:-0.228311 2:-1 3:1 4:0.312977 5:-1 6:-0.806452 7:-1 8:-1 9:-1 10:0.208333 11:1 12:0.333333 
0.95670540633080614 0.84735201565912588 1:0.333333 2:-0.358491 3:-0.52968 4:-1 5:1 6:0.206107 7:-1 8:-0.870968 9:-0.333333 10:1 11:0.541667 12:1 
1 0.36571725731395371 1:-1 2:0.333333 3:-0.509434 4:-0.593607 5:-1 6:-1 7:0.51145 8:-1 9:-1 10:-1 11:-1 12:-1 
0.63909726231179087 0.52008934080551339 1:0.333333 2:1 3:0.333333 4:1 5:1 6:-0.132075 7:-0.630137 8:-1 9:1 10:0.0229008 11:1 12:-0.387097 
1 0.31654298382928248 1:-1 2:-1 3:-1 4:-1 5:-1 6:-0.208333 7:1 8:1 9:-0.471698 10:-0.561644 11:-1 12:1 
1 0.59114360724519066 1:0.755725 2:-1 3:-1 4:-1 5:-1 6:-1 7:-0.541667 8:1 9:1 10:0.0943396 11:-0.557078 12:-1 
1 0.55147782113612631 1:-0.511416 2:-1 3:-1 4:0.648855 5:1 6:-0.870968 7:-1 8:-1 9:-1 10:-0.291667 11:1 12:-0.333333 
0.53730887458732035 0.91228711537939666 1:0.333333 2:-0.396226 3:-0.579909 4:1 5:-1 6:-0.0381679 7:-1 8:-0.290323 9:-0.333333 10:0.5 11:0.208333 12:1 
0.77611659932158028 0.78768077448467788 1:0.333333 2:-0.132075 3:-0.611872 4:1 5:1 6:0.435115 7:-1 8:-1 9:-1 10:-1 11:-1 12:-0.166667 
0.49258836261942773 0.60910973341439856 1:-0.375 2:1 3:1 4:-0.698113 5:-0.675799 6:-1 7:1 8:0.618321 9:-1 10:-1 11:-1 12:-0.333333 
0.69460331562283051 0.74063179633030241 1:0.5 2:0.5 3:-1 4:1 5:0.0566038 6:-0.547945 7:-1 8:1 9:-0.343511 10:-1 11:-0.677419 12:1 
0.3536010690990038 0.46322394824904517 1:1 2:-0.458333 3:1 4:1 5:-0.207547 6:-0.136986 7:-1 8:-1 9:-0.175573 10:1 11:-0.419355 12:-1 
0.26950417363333318 0.2591881507132997 1:0.5 2:-0.0416667 3:1 4:-0.333333 5:-0.358491 6:-0.639269 7:1 8:-1 9:0.725191 10:-1 11:-1 12:-1 
0.19372926646181549 1 1:-1 2:-1 3:0.333333 4:-1 5:-0.333333 6:-1 7:-0.333333 8:-0.320755 9:-0.506849 10:-1 11:1 12:0.587786 
0.75570365794769634 0.052913544970777625 1:-1 2:-1 3:-1 4:-0.333333 5:-1 6:0.333333 7:1 8:1 9:-0.169811 10:-0.817352 11:-1 12:1 
0.24752600800590838 0.86842995905610343 1:-0.618321 2:-1 3:-1 4:-1 5:-1 6:-1 7:0.25 8:-1 9:1 10:0.509434 11:-0.438356 12:-1 
0.57275796981246541 0.59379574488028408 1:1 2:-0.51145 3:-1 4:-0.548387 5:-0.333333 6:1 7:0.166667 8:1 9:0.333333 10:0.0566038 11:-1 12:1 
0.52300410368065442 0.92231151696297919 1:-1 2:-1 3:0.496183 4:-1 5:-1 6:-1 7:-1 8:-1 9:0.291667 10:-1 11:-1 12:0.0566038 
1 0.86198406650310611 1:-0.479452 2:-1 3:-1 4:0.526718 5:-1 6:-0.709677 7:-1 8:-1 9:-1 10:0.416667 11:1 12:-1 
0.3317898967413358 0.43244404198193892 1:1 2:-0.132075 3:-0.383562 4:-1 5:1 6:0.755725 7:1 8:-1 9:-1 10:-1 11:-1 12:0.208333 
0.48072086880999304 1 1:-0.375 2:-1 3:0.333333 4:-0.54717 5:-0.47032 6:-1 7:-1 8:0.19084 9:-1 10:-0.903226 11:-0.333333 12:-1 
0.66193217556107464 1 1:-1 2:-1 3:0.708333 4:1 5:-0.333333 6:0.169811 7:-0.456621 8:-1 9:1 10:0.0992366 11:-1 12:-1 
0.58955874840488443 0.50226864998466625 1:-1 2:-1 3:0.583333 4:-1 5:1 6:-0.773585 7:-0.557078 8:-1 9:-1 10:0.0839695 11:-1 12:-0.903226 
0.46333739660633949 0.6309856692744098 1:-1 2:0.333333 3:-1 4:-0.333333 5:1 6:1 7:-0.0943396 8:-0.164384 9:-1 10:1 11:0.160305 12:1 
0.43312465082426216 0.49705383123623198 1:-1 2:1 3:1 4:-0.333333 5:1 6:1 7:-0.811321 8:-0.625571 9:-1 10:1 11:0.175573 12:1 
0.83455068762294682 1 1:-1 2:-1 3:-1 4:-1 5:0.125 6:1 7:-0.333333 8:-0.509434 9:-0.497717 10:-1 11:-1 12:0.633588 
0.73140361110615937 0.77073884712646801 1:-0.480916 2:-1 3:-0.354839 4:-0.333333 5:1 6:-0.75 7:1 8:1 9:-0.509434 10:-0.671233 11:-1 12:-1 
0.41046574534292019 0.51787268003511655 1:-0.0992366 2:1 3:-0.483871 4:-1 5:1 6:0.208333 7:1 8:1 9:0.0566038 10:-0.342466 11:-1 12:1 
0.79361689695534332 0.8491111170695409 1:-0.389313 2:1 3:-0.741935 4:-1 5:-1 6:1 7:-0.5 8:1 9:0.333333 10:-0.320755 11:-0.598174 12:-1 
0.54626486229030502 0.42563536957791664 1:1 2:0.480916 3:-1 4:-0.354839 5:-1 6:-1 7:0.166667 8:1 9:1 10:-0.698113 11:-0.657534 12:-1 
0.64589184811405076 1 1:1 2:1 3:0.0534351 4:-1 5:-1 6:-1 7:-1 8:-1 9:0.25 10:1 11:-1 12:0.584906 
0.52738612325911671 0.52444293285437116 1:-0.342466 2:-1 3:1 4:0.129771 5:-1 6:0.354839 7:1 8:-1 9:1 10:-0.5 11:-1 12:-0.333333 
0.87459931354963427 0.70430187133576871 1:-0.333333 2:-0.132075 3:-0.56621 4:-1 5:-1 6:0.419847 7:1 8:-1 9:-1 10:-1 11:-1 12:0.333333 
0.55484379951104135 0.53305130710559634 1:0.0416667 2:1 3:1 4:-0.433962 5:-0.360731 6:-1 7:1 8:-0.419847 9:1 10:-0.290323 11:-0.333333 12:1 
0.57703010677747479 0.60955701521635652 1:0.0416667 2:1 3:1 4:-0.698113 5:-0.634703 6:-1 7:1 8:-0.435115 9:1 10:-1 11:-0.333333 12:-1 
0.48739693032347831 0.93356650385660189 1:1 2:-0.25 3:1 4:1 5:-0.698113 6:-0.319635 7:-1 8:1 9:-0.282443 10:1 11:-0.677419 12:-0.333333 
0.69269204360282766 0.52342470883953673 1:-0.333333 2:1 3:0.458333 4:-1 5:0.333333 6:-0.132075 7:-0.146119 8:-1 9:-1 10:-0.0534351 11:-1 12:-0.935484 
0.68664129312847677 0.53258534975693972 1:-1 2:-1 3:1 4:-0.125 5:-1 6:-0.333333 7:-0.509434 8:-0.461187 9:-1 10:-1 11:0.389313 12:-1 
1 0.9447226672522312 1:-1 2:-0.677419 3:-1 4:-1 5:-0.166667 6:-1 7:1 8:-0.320755 9:-0.347032 10:-1 11:-1 12:0.40458 
0.086337125712313376 0.19835692529410046 1:-0.19084 2:-1 3:-0.677419 4:1 5:1 6:0.416667 7:1 8:1 9:-0.320755 10:-0.415525 11:-1 12:1 
0.57158725600288651 0.58362179245141754 1:0.160305 2:-1 3:-0.548387 4:-0.333333 5:1 6:-0.208333 7:1 8:1 9:-0.433962 10:-0.324201 11:-1 12:1 
0.48208587090086397 0.69949529735787697 1:0.0992366 2:1 3:-0.612903 4:-1 5:-1 6:0.291667 7:-1 8:1 9:0.0566038 10:-0.39726 11:-1 12:1 
1 0.56056314828040854 1:-1 2:0.0229008 3:-1 4:-1 5:-1 6:-1 7:0.0833333 8:-1 9:1 10:0.622642 11:-0.0821918 12:-1 
0.5709701083675176 0.16836581924695804 1:-0.29771 2:1 3:0.0967742 4:-1 5:-1 6:-0.5 7:1 8:-0.333333 9:-0.698113 10:-0.502283 11:-1 12:-1 
0.52555795090959112 0.5263094206756026 1:1 2:-1 3:0.51145 4:-1 5:-1 6:-1 7:-1 8:-1 9:-0.458333 10:1 11:-0.333333 12:-0.509434 
0.22802684301102163 0.74031488627975206 1:-0.245283 2:-0.3379 3:-1 4:-1 5:0.389313 6:-1 7:-1 8:-1 9:-1 10:-0.291667 11:1 12:1 
0.40001086331498015 0.5799628016188163 1:-1 2:-1 3:0.0566038 4:-0.543379 5:-1 6:-1 7:-0.343511 8:-1 9:-0.16129 10:1 11:-1 12:-1 
0.25488646508243468 0.27788847470664441 1:1 2:0.0416667 3:1 4:1 5:-0.471698 6:-0.269406 7:-1 8:1 9:-0.312977 10:1 11:0.0322581 12:0.333333 
0.55751851402367758 1 1:-1 2:0.166667 3:1 4:1 5:0.0943396 6:-0.324201 7:-1 8:-1 9:-0.740458 10:1 11:-0.612903 12:-0.333333 
1 0.62617970392937461 1:1 2:-0.333333 3:-1 4:0.0416667 5:-1 6:0.333333 7:0.245283 8:-0.657534 9:-1 10:-1 11:0.40458 12:-1 
0.57782102774713762 0.79427821352278261 1:1 2:-0.419355 3:0.333333 4:1 5:-0.0416667 6:-1 7:0.333333 8:-0.207547 9:-0.680365 10:-1 11:1 12:0.496183 
0.6433683499192504 0.95634812597878449 1:1 2:-0.0687023 3:1 4:-0.967742 5:-1 6:-0.333333 7:-1 8:-0.458333 9:1 10:1 11:-0.132075 12:-0.543379 
0.54909182602885109 0.97353044423833068 1:-1 2:-1 3:0.633588 4:-1 5:-1 6:-1 7:-1 8:-1 9:0.458333 10:1 11:1 12:-0.509434 
0.3985554028209381 0.44613977053312648 1:0.333333 2:-0.0943396 3:-0.767123 4:-1 5:1 6:0.358779 7:1 8:-0.548387 9:1 10:-1 11:-1 12:0.583333 
0.78780761783148601 0.89536549672954446 1:0.333333 2:0.5 3:0.25 4:1 5:1 6:-0.169811 7:-0.3379 8:-1 9:1 10:0.694656 11:-1 12:-1 
0.93021243827906386 0.74233609232503217 1:-0.806452 2:-0.333333 3:1 4:-0.0833333 5:1 6:-1 7:-0.415094 8:-0.60274 9:-1 10:1 11:-0.175573 12:1 
0.48413100192564462 0.55834037841631634 1:-0.548387 2:-1 3:-0.333333 4:-1 5:0.0416667 6:1 7:-0.333333 8:0.849057 9:-0.283105 10:-1 11:1 12:0.89313 
0.98054457787340832 0.84491702127589929 1:-1 2:-1 3:-1 4:-0.333333 5:1 6:1 7:1 8:-0.45283 9:-0.287671 10:-1 11:-1 12:-0.633588 
0.0096876639316140541 0 1:-0.343511 2:1 3:-0.354839 4:-1 5:1 6:0.208333 7:1 8:0.333333 9:-0.283019 10:-0.552511 11:-1 12:1 
0.81116150396081466 0.46799686090586562 1:-0.320755 2:-0.191781 3:-1 4:-1 5:-0.221374 6:-1 7:-0.354839 8:0.333333 9:-1 10:-0.0833333 11:-1 12:0.333333 
0.49291791539437446 0.53195436818398512 1:1 2:1 3:-0.132075 4:-0.584475 5:-1 6:-1 7:-0.389313 8:1 9:0.806452 10:1 11:-1 12:1 
0.30986097427423087 0.32684998679298227 1:-0.333333 2:1 3:-0.333333 4:-0.358491 5:-0.16895 6:-1 7:1 8:0.51145 9:-1 10:-1 11:-1 12:-1 
0.25214442702922751 0.079118170271870181 1:1 2:-0.625 3:1 4:-1 5:-0.509434 6:-0.520548 7:-1 8:-1 9:0.694656 10:1 11:0.225806 12:-1 
0.79706302725066369 0.60789172732944408 1:-1 2:0.0833333 3:1 4:-0.333333 5:-0.320755 6:-0.378995 7:-1 8:-1 9:0.282443 10:-1 11:-1 12:-1 
0.52624195877278679 0.9789046762174356 1:-1 2:-1 3:0.208333 4:1 5:1 6:-0.358491 7:-0.392694 8:-1 9:1 10:-0.0992366 11:1 12:-0.0322581 
0.62320582528266832 0.63643915515882887 1:-1 2:-1 3:1 4:0.458333 5:-1 6:1 7:0.622642 8:-0.0913242 9:-1 10:-1 11:0.267176 12:1 
0.58948415823918121 0.63214080854241805 1:-1 2:-0.612903 3:1 4:-1 5:-1 6:-0.333333 7:-1 8:1 9:-0.169811 10:-0.497717 11:-1 12:1 
0.63155473465000966 0.66044806996917937 1:0.236641 2:1 3:-0.935484 4:-1 5:-1 6:0.5 7:1 8:-1 9:-0.169811 10:-0.287671 11:1 12:1 
0.37537599501815766 0.45793759246132781 1:0.145038 2:-1 3:-0.354839 4:1 5:1 6:0.583333 7:1 8:1 9:-0.886792 10:-0.210046 11:-1 12:1 
0.6126656806049382 0.67071203676113045 1:-1 2:-0.465649 3:-1 4:-0.387097 5:1 6:-1 7:-0.0833333 8:1 9:1 10:-0.132075 11:-0.214612 12:-1 
0.66707210815691453 0.55618006314400903 1:-1 2:0.160305 3:-1 4:0.16129 5:-1 6:-1 7:0.583333 8:1 9:1 10:-0.415094 11:-0.415525 12:1 
0.63699540509727437 0.5710298679256447 1:1 2:-1 3:0.877863 4:-1 5:-0.741935 6:1 7:-1 8:1 9:0.125 10:-1 11:1 12:-0.245283 
0.55493433040663143 0.50150767227717996 1:0.292237 2:-1 3:1 4:0.206107 5:1 6:-0.387097 7:0.333333 8:1 9:-0.5 10:1 11:1 12:-0.698113 
0.61618225913359381 0.66711368519097536 1:-0.452055 2:1 3:1 4:0.557252 5:-1 6:-1 7:-1 8:1 9:-1 10:-0.416667 11:1 12:0.333333 
0.88428589690076298 1 1:1 2:-0.283019 3:-0.73516 4:-1 5:1 6:-0.480916 7:1 8:-0.322581 9:-0.333333 10:0.5 11:-0.0416667 12:1 
0.67494995655837275 0.99803028645542891 1:1 2:0.333333 3:0.245283 4:-0.347032 5:-1 6:-1 7:-0.374046 8:1 9:-0.0645161 10:-0.333333 11:1 12:0.0416667 
0.65992376013331777 0.56248758674124577 1:1 2:0.0416667 3:1 4:-0.333333 5:-0.735849 6:-0.164384 7:-1 8:-1 9:0.29771 10:-1 11:-1 12:-1 
0.56669736719821961 0.52598047482673427 1:-1 2:1 3:-0.75 4:1 5:1 6:-0.396226 7:-0.287671 8:-1 9:1 10:0.29771 11:1 12:-1 
0.58221343857133523 1 1:-1 2:-0.548387 3:-1 4:-1 5:0.208333 6:-1 7:1 8:-0.886792 9:-0.442922 10:-1 11:1 12:-0.221374 
0.83371493340115888 0.75598107242414425 1:-1 2:-0.483871 3:-1 4:-1 5:0.666667 6:-1 7:-1 8:-0.132075 9:-0.484018 10:-1 11:-1 12:0.221374 
0.53918692278863223 0.49507255831126656 1:-1 2:-0.419355 3:-1 4:0.333333 5:-1 6:1 7:1 8:1 9:-0.415094 10:-0.187215 11:-1 12:1 
0.82442215937681718 0.43685304219311177 1:-0.39726 2:-1 3:1 4:0.0687023 5:1 6:-0.0967742 7:-0.333333 8:1 9:-0.0833333 10:1 11:1 12:-0.132075 
0.43739301359072208 0.41475128388603522 1:-0.210046 2:-1 3:-1 4:0.557252 5:1 6:-0.483871 7:-1 8:-1 9:1 10:0.0833333 11:1 12:1 
0.45394603660440042 1 1:-0.849057 2:-0.123288 3:-1 4:-1 5:0.358779 6:-1 7:-1 8:-1 9:-0.333333 10:-1 11:0.208333 12:1 
0.7502512261723755 0.49258622527661616 1:1 2:0.333333 3:-0.415094 4:-0.456621 5:1 6:1 7:0.450382 8:-1 9:-0.225806 10:-1 11:-1 12:-0.416667 
0.12316659625877233 0.28812909387393004 1:1 2:-0.333333 3:-0.320755 4:-0.643836 5:-1 6:1 7:1 8:-1 9:-1 10:-1 11:-1 12:-1 
0.99475734632156487 0.49632899777254585 1:-0.5 2:-1 3:-0.333333 4:-0.320755 5:-0.643836 6:-1 7:1 8:0.541985 9:-1 10:-0.548387 11:-1 12:-1 
0.48304072404040149 0.80331642221847588 1:-1 2:-0.333333 3:1 4:0.0416667 5:1 6:0.333333 7:-0.509434 8:-0.39726 9:-1 10:1 11:0.160305 12:-1 
1 0.91253001055929417 1:-1 2:-1 3:-1 4:-1 5:0.0416667 6:1 7:1 8:-0.698113 9:-0.484018 10:-1 11:-1 12:-0.160305 
0.65309717144037094 1 1:-1 2:-0.483871 3:-1 4:-1 5:-1 6:0.416667 7:1 8:1 9:-0.320755 10:-0.0684932 11:1 12:1 
0.38416795188498432 0.41521314799794773 1:-1 2:-1 3:-0.0687023 4:-1 5:-1 6:-1 7:0.5 8:0.375 9:-1 10:0.333333 11:-0.320755 12:-0.374429 
0.96963041853339227 0.42734630572865262 1:-1 2:-1 3:-0.603053 4:-1 5:-0.612903 6:-0.333333 7:1 8:-0.416667 9:-1 10:1 11:-0.283019 12:-0.0182648 
0.493806622067195 0.57620326865865856 1:-0.726027 2:-1 3:1 4:0.816794 5:-1 6:-1 7:-1 8:0.5 9:0.333333 10:-1 11:1 12:-0.0377358 
0.5627341537598437 0.47675264801373979 1:-0.575342 2:-1 3:-1 4:0.0534351 5:-1 6:-0.612903 7:-1 8:1 9:-0.333333 10:1 11:1 12:-0.603774 
0.63568206063697941 0.59432208310223822 1:1 2:0.245283 3:-0.826484 4:-1 5:1 6:0.129771 7:-1 8:1 9:1 10:1 11:1 12:-1 
0.66196092010344043 0.23078199246438555 1:1 2:0.333333 3:-0.169811 4:-0.401826 5:-1 6:1 7:0.29771 8:-1 9:-1 10:-1 11:-1 12:-1 
1 1 1:-0.0416667 2:1 3:-0.333333 4:-0.509434 5:-0.0913242 6:-1 7:-1 8:0.541985 9:-1 10:-0.935484 11:-1 12:-1 
0.54329595994232471 0.72728770955406707 1:-1 2:-1 3:-1 4:1 5:-0.320755 6:-0.369863 7:-1 8:1 9:0.0992366 10:-1 11:-0.870968 12:-1 
0.61832389806854382 0.79697389095438842 1:0.333333 2:-1 3:-0.0833333 4:-1 5:0.333333 6:-0.132075 7:-0.16895 8:-1 9:1 10:0.0839695 11:-1 12:-0.516129 
0.51897082314132659 0.69868737585732732 1:-1 2:-0.333333 3:-1 4:0.291667 5:1 6:1 7:-0.320755 8:-0.420091 9:-1 10:-1 11:0.114504 12:1 
0.33887283996564677 0.67239255527357933 1:-1 2:-0.806452 3:-1 4:0.333333 5:0.5 6:0.5 7:-1 8:0.333333 9:0.150943 10:-0.347032 11:-1 12:-1 
0.30143751391675616 0.26627979078485514 1:1 2:0.282443 3:-1 4:-0.0322581 5:-1 6:-1 7:0.291667 8:1 9:1 10:-0.0377358 11:-0.287671 12:-1 
0.80352142165189866 0.85822558777326663 1:1 2:0.0839695 3:1 4:-0.0967742 5:0.333333 6:1 7:0.0416667 8:1 9:1 10:-0.509434 11:-0.716895 12:-1 
0.5775322377286991 0.79891673238671923 1:-1 2:-0.358779 3:-1 4:-0.548387 5:-0.333333 6:1 7:-0.375 8:1 9:-0.333333 10:-0.320755 11:-0.575342 12:-1 
0.23783978845275239 0.33723488109117644 1:-0.776256 2:-1 3:-1 4:-0.206107 5:-1 6:-0.806452 7:-1 8:-1 9:-1 10:0.25 11:1 12:0.333333 
0.67482648419191726 0.78794113910887986 1:-0.333333 2:0.245283 3:-0.196347 4:-1 5:-1 6:0.389313 7:-1 8:-0.870968 9:-1 10:0.333333 11:-1 12:0.333333 
1 0.42925276523549472 1:1 2:0.333333 3:-0.132075 4:-0.0456621 5:-1 6:-1 7:0.328244 8:-1 9:-1 10:-1 11:-1 12:-1 
-1 1 1:0.583333 2:-1 3:0.333333 4:-0.603774 5:1 6:-1 7:1 8:0.358779 9:-1 10:-0.483871 11:-1 12:1 
-1 1 1:0.166667 2:1 3:-0.333333 4:-0.433962 5:-0.383562 6:-1 7:-1 8:0.0687023 9:-1 10:-0.903226 11:-1 12:-1 
-1 1 1:-1 2:-1 3:1 4:0.125 5:1 6:0.333333 7:-0.320755 8:-0.406393 9:1 10:1 11:0.0839695 12:1 
-1 1 1:0.290323 2:1 3:1 4:0.25 5:1 6:1 7:-0.226415 8:-0.506849 9:-1 10:-1 11:0.374046 12:-1 
-0.44590645850378063 0.29607271153465364 1:-0.175573 2:-1 3:-0.483871 4:-1 5:-1 6:-0.291667 7:1 8:1 9:-0.132075 10:-0.155251 11:-1 12:-1 
-1 1 1:1 2:1 3:-1 4:1 5:0.458333 6:1 7:-1 8:-0.698113 9:-0.611872 10:-1 11:1 12:0.114504 
-1 1 1:0.679389 2:-1 3:-0.612903 4:-1 5:-1 6:-0.25 7:1 8:1 9:-0.660377 10:-0.643836 11:-1 12:-1 
-1 1 1:1 2:0.343511 3:1 4:-1 5:-1 6:-0.333333 7:-1 8:-0.208333 9:-1 10:0.333333 11:-0.320755 12:-0.319635 
-1 1 1:1 2:-0.208333 3:1 4:1 5:-0.320755 6:-0.406393 7:1 8:1 9:0.206107 10:1 11:-1 12:-1 
-1 1 1:-1 2:-0.333333 3:1 4:0.25 5:1 6:-1 7:0.245283 8:-0.328767 9:-1 10:1 11:-0.175573 12:-1 
-1 1 1:-1 2:-1 3:-1 4:-1 5:-0.458333 6:1 7:0.333333 8:-0.320755 9:-0.753425 10:-1 11:-1 12:0.206107 
-1 1 1:-0.867925 2:-0.675799 3:1 4:-1 5:0.29771 6:-1 7:-1 8:-1 9:-1 10:1 11:0.25 12:1 
-1 0.81705606729504554 1:1 2:0.333333 3:-0.54717 4:-0.894977 5:-1 6:1 7:-0.160305 8:-1 9:-0.741935 10:-1 11:1 12:-1 
-1 0.77324242285412004 1:-1 2:-0.333333 3:-1 4:0.416667 5:-1 6:-0.333333 7:-0.132075 8:-0.684932 9:-1 10:-1 11:0.648855 12:-1 
-1 1 1:-1 2:-0.806452 3:-1 4:-1 5:-0.5 6:-1 7:-0.333333 8:-0.792453 9:-0.671233 10:-1 11:-1 12:0.480916 
-1 1 1:-1 2:0.557252 3:-1 4:-0.935484 5:-1 6:-0.333333 7:1 8:-0.0833333 9:-1 10:1 11:-0.320755 12:-0.182648 
-1 1 1:-1 2:-1 3:0.0839695 4:1 5:-0.612903 6:-1 7:1 8:-0.375 9:1 10:0.333333 11:-0.509434 12:-0.543379 
-1 1 1:1 2:0.166667 3:-1 4:1 5:-0.509434 6:0.0410959 7:-1 8:-1 9:0.40458 10:1 11:-0.806452 12:-1 
-1 1 1:-1 2:-1 3:-1 4:0.958333 5:-1 6:0.333333 7:-0.132075 8:-0.675799 9:-1 10:-0.312977 11:-1 12:-0.645161 
-1 1 1:-0.0322581 2:-1 3:-1 4:-0.583333 5:-1 6:0.333333 7:-1 8:-0.666667 9:-1 10:-1 11:0.648855 12:-1 
-1 1 1:-1 2:-1 3:-1 4:-1 5:-0.458333 6:-1 7:0.333333 8:-0.509434 9:-0.621005 10:-1 11:-1 12:0.557252 
-1 0.65345312603184036 1:-1 2:-0.741935 3:-1 4:-1 5:-1 6:0.208333 7:1 8:1 9:-0.0188679 10:-0.579909 11:-1 12:-1 
-1 1 1:-1 2:-0.160305 3:1 4:-0.516129 5:-1 6:0.5 7:-0.458333 8:1 9:-1 10:0.0188679 11:-0.461187 12:-1 
-1 1 1:1 2:0.633588 3:-1 4:-0.741935 5:-1 6:0.333333 7:-1 8:0.375 9:1 10:-0.333333 11:-0.358491 12:-0.625571 
-1 1 1:1 2:0.0566038 3:-0.465753 4:-1 5:1 6:-0.129771 7:-1 8:-0.16129 9:-1 10:1 11:0.25 12:1 
-1 1 1:-1 2:1 3:-0.320755 4:-0.0684932 5:-1 6:1 7:0.496183 8:-1 9:-1 10:-1 11:-1 12:-1 
-1 1 1:-0.0416667 2:1 3:1 4:-0.415094 5:-0.607306 6:-1 7:-1 8:0.480916 9:-1 10:-0.677419 11:-1 12:0.333333 
-1 1 1:-1 2:0.541667 3:1 4:1 5:-0.509434 6:-0.196347 7:-1 8:1 9:0.221374 10:-1 11:-0.870968 12:-1 
-1 1 1:-1 2:0.208333 3:1 4:1 5:-0.886792 6:-0.506849 7:-1 8:-1 9:0.29771 10:-1 11:-0.967742 12:-1 
-1 1 1:-1 2:-0.806452 3:-1 4:-1 5:0.583333 6:1 7:1 8:-0.509434 9:-0.493151 10:-1 11:-1 12:-1 
-1 1 1:0.450382 2:-1 3:-0.83871 4:-1 5:1 6:-0.0833333 7:1 8:0.333333 9:-0.886792 10:-0.561644 11:-1 12:-1 
-1 0.69304468501574745 1:0.389313 2:1 3:-1 4:-1 5:-0.333333 6:1 7:-0.333333 8:-1 9:-0.333333 10:-0.660377 11:-0.844749 12:-1 
-1 1 1:1 2:0.374046 3:-1 4:-1 5:-1 6:-1 7:-1 8:0.0416667 9:-1 10:0.333333 11:-0.226415 12:-0.187215 
-0.86433839471795626 1 1:-0.509434 2:-0.438356 3:-1 4:1 5:0.114504 6:-1 7:-0.741935 8:-1 9:-1 10:1 11:0.125 12:-1 
-1 1 1:1 2:1 3:-0.260274 4:1 5:1 6:-0.0534351 7:1 8:0.290323 9:1 10:0.333333 11:1 12:0.541667 
-1 1 1:0.125 2:1 3:1 4:-0.320755 5:-0.283105 6:1 7:1 8:-0.51145 9:1 10:-0.483871 11:1 12:-1 
-1 1 1:1 2:-0.166667 3:1 4:0.333333 5:-0.509434 6:-0.716895 7:-1 8:-1 9:0.0381679 10:-1 11:-0.354839 12:1 
-1 0.96728656540544256 1:-1 2:-0.741935 3:-1 4:-0.333333 5:-1 6:0.291667 7:1 8:1 9:-0.566038 10:-0.525114 11:1 12:-1 
-1 0.76290731413787483 1:0.358779 2:1 3:-0.548387 4:-1 5:0.333333 6:1 7:0.416667 8:-1 9:1 10:-0.735849 11:-0.347032 12:-1 
-1 1 1:-1 2:0.496183 3:1 4:-0.419355 5:0.333333 6:-1 7:0.541667 8:1 9:1 10:-0.660377 11:-0.607306 12:-1 
-0.71282890461489379 0.88190127926521455 1:0.0566038 2:-0.515982 3:-1 4:1 5:0.435115 6:-1 7:-0.483871 8:-1 9:-1 10:1 11:-0.291667 12:-1 
-1 0.67208220172663069 1:-1 2:0.333333 3:0.0943396 4:-0.310502 5:-1 6:-1 7:0.541985 8:-1 9:-1 10:-1 11:-0.333333 12:-1 
-1 1 1:-1 2:1 3:0.458333 4:1 5:1 6:-0.0377358 7:-0.607306 8:-1 9:1 10:-0.0687023 11:-1 12:-0.354839 
-1 1 1:-1 2:-1 3:-1 4:-0.125 5:1 6:0.333333 7:-0.132075 8:-0.511416 9:-1 10:-1 11:0.40458 12:-1 
-1 0.77461482732253928 1:-1 2:-1 3:-1 4:-0.333333 5:-1 6:-0.541667 7:1 8:1 9:-0.698113 10:-0.812785 11:-1 12:1 
-1 1 1:-0.320755 2:-0.406393 3:-1 4:1 5:0.19084 6:-1 7:-0.83871 8:-1 9:-1 10:-1 11:-0.291667 12:-1 
-1 1 1:-1 2:-1 3:-1 4:-1 5:-1 6:1 7:0.333333 8:-0.320755 9:-0.675799 10:1 11:1 12:0.236641 
-1 0.99127129830924987 1:-0.0839695 2:-1 3:-0.967742 4:-0.333333 5:-1 6:0.666667 7:1 8:0.333333 9:-0.132075 10:-0.415525 11:-1 12:1 
-1 1 1:-1 2:0.40458 3:-1 4:-1 5:-1 6:-1 7:-1 8:-0.458333 9:1 10:0.333333 11:-0.509434 12:-0.479452 
-1 0.92826028013048834 1:1 2:1 3:-0.132075 4:-0.484018 5:-1 6:-1 7:0.358779 8:-1 9:-0.612903 10:-1 11:-1 12:-1 
-1 1 1:0.708333 2:1 3:1 4:-0.0377358 5:-0.780822 6:-1 7:-1 8:-0.175573 9:1 10:-0.16129 11:1 12:-1 
-1 0.68171294020655604 1:-1 2:-0.677419 3:-1 4:-1 5:0.0416667 6:-1 7:0.333333 8:-0.698113 9:-0.598174 10:-1 11:-1 12:0.328244 
-1 1 1:0.389313 2:1 3:-1 4:-1 5:1 6:-1 7:0.625 8:1 9:0.333333 10:-0.54717 11:-0.310502 12:-1 
-1 0.94490086902928372 1:-1 2:0.221374 3:-1 4:-0.677419 5:-1 6:-0.333333 7:1 8:0.208333 9:1 10:1 11:-0.415094 12:-0.205479 
-1 1 1:-1 2:1 3:0.526718 4:-1 5:-1 6:-1 7:0.333333 8:1 9:0.291667 10:1 11:1 12:-0.415094 
-1 1 1:0.245283 2:-0.255708 3:-1 4:1 5:0.129771 6:1 7:-0.741935 8:-0.333333 9:1 10:-0.0416667 11:1 12:-1 
-1 1 1:0.0943396 2:-0.214612 3:1 4:-1 5:0.633588 6:-1 7:-0.612903 8:-1 9:1 10:0.291667 11:-1 12:0.333333 
-1 1 1:0.333333 2:-0.792453 3:-0.479452 4:-1 5:1 6:0.267176 7:1 8:-0.806452 9:-1 10:1 11:0.458333 12:1 
-1 1 1:0.333333 2:-0.415094 3:-0.164384 4:-1 5:-1 6:-0.0839695 7:1 8:-0.419355 9:-1 10:1 11:-0.666667 12:1 
-1 1 1:1 2:-1 3:0.433962 4:-0.260274 5:-1 6:1 7:0.343511 8:-1 9:-0.935484 10:-1 11:1 12:-0.0833333 
-1 0.66017808787859045 1:-1 2:0.333333 3:-0.471698 4:-0.60274 5:-1 6:-1 7:0.435115 8:-1 9:-0.935484 10:-1 11:-1 12:0.208333 
-1 0.93279372490991552 1:-1 2:-1 3:-0.0833333 4:1 5:0.333333 6:-1 7:-0.538813 8:-1 9:-1 10:0.267176 11:1 12:-1 
-1 1 1:-0.870968 2:-1 3:1 4:-0.375 5:1 6:-0.333333 7:-0.509434 8:-0.570776 9:-1 10:-1 11:0.51145 12:-1 
-1 0.85188843361425992 1:-0.0687023 2:1 3:-0.419355 4:-1 5:1 6:1 7:-0.75 8:-1 9:1 10:-0.169811 11:-0.739726 12:-1 
-1 1 1:-0.173516 2:-1 3:1 4:0.145038 5:1 6:-0.677419 7:-1 8:1 9:-0.583333 10:1 11:1 12:-0.54717 
-1 1 1:0.333333 2:-0.320755 3:-0.520548 4:-1 5:-1 6:0.145038 7:-1 8:-0.419355 9:1 10:1 11:0.375 12:-1 
-1 1 1:1 2:-0.169811 3:-0.506849 4:-1 5:1 6:0.358779 7:-1 8:-1 9:-1 10:-1 11:-1 12:-0.416667 
-1 1 1:1 2:1 3:-0.509434 4:-0.767123 5:-1 6:1 7:-0.251908 8:1 9:-0.193548 10:-1 11:1 12:-0.25 
-1 1 1:1 2:-0.583333 3:1 4:0.333333 5:-0.132075 6:-0.109589 7:-1 8:1 9:0.694656 10:-1 11:-1 12:-1 
-1 1 1:-1 2:0.375 3:-1 4:1 5:-0.132075 6:-0.351598 7:-1 8:1 9:0.358779 10:-1 11:0.16129 12:1 
-1 1 1:-0.548387 2:-1 3:-0.333333 4:1 5:0.5 6:1 7:1 8:-0.698113 9:-0.442922 10:-1 11:1 12:0.328244 
-1 1 1:0.175573 2:-1 3:-0.741935 4:-1 5:-1 6:-1 7:0.291667 8:1 9:0.333333 10:-0.132075 11:-0.730594 12:-1 
-1 1 1:-1 2:1 3:0.251908 4:-1 5:-1 6:-1 7:-0.333333 8:-1 9:-0.0833333 10:1 11:0.333333 12:-0.698113 
-1 -1 1:-0.333333 2:-1 3:0.5 4:1 5:1 6:-0.509434 7:-0.767123 8:-1 9:-1 10:0.0534351 11:-1 12:-0.870968 
-1 -0.94674496397835484 1:-0.612903 2:-0.333333 3:1 4:0.291667 5:1 6:1 7:-0.132075 8:-0.237443 9:-1 10:1 11:0.51145 12:-1 
-1 -0.7394238182976034 1:-0.83871 2:-1 3:1 4:1 5:1 6:-0.0943396 7:-0.543379 8:-1 9:1 10:-0.389313 11:1 12:-1 
-1 -0.31227244901103907 1:-1 2:-1 3:-1 4:-1 5:0.333333 6:1 7:-1 8:-0.245283 9:-0.506849 10:-1 11:-1 12:0.129771 
-1 -0.91027734122923853 1:-0.251908 2:1 3:-0.419355 4:0.333333 5:1 6:1 7:1 8:-0.132075 9:-0.648402 10:1 11:1 12:0.282443 
-1 -0.995937362812917 1:1 2:-0.548387 3:-1 4:-1 5:1 6:0.583333 7:1 8:1 9:-0.509434 10:-0.52968 11:-1 12:1 
-1 -1 1:0.664122 2:-1 3:-0.935484 4:-1 5:-1 6:-0.416667 7:1 8:1 9:-0.603774 10:-0.191781 11:-1 12:-1 
-1 -0.84890095451147241 1:-0.660377 2:-0.525114 3:-1 4:1 5:0.435115 6:-1 7:-0.193548 8:-0.333333 9:1 10:0.75 11:-1 12:0.333333 
-1 -0.78312204870299273 1:-0.698113 2:-0.365297 3:1 4:1 5:-0.0992366 6:-1 7:-1 8:-1 9:-0.333333 10:-1 11:0.166667 12:1 
-1 -1 1:1 2:0.245283 3:-0.534247 4:-1 5:1 6:0.0229008 7:-1 8:-0.258065 9:-1 10:-1 11:0.5 12:-0.666667 
-1 -1 1:0.25 2:1 3:1 4:0.433962 5:-0.086758 6:-1 7:1 8:0.0534351 9:1 10:0.0967742 11:1 12:-1 
-1 -1 1:1 2:-0.125 3:1 4:1 5:-0.0566038 6:-0.6621 7:-1 8:1 9:-0.160305 10:1 11:-0.709677 12:-1 
-1 -1 1:-1 2:0.679389 3:-1 4:-1 5:-1 6:-1 7:1 8:0.375 9:-1 10:1 11:-0.433962 12:-0.621005 
-1 -1 1:-1 2:-1 3:0.40458 4:-1 5:-1 6:-1 7:-1 8:-1 9:-0.375 10:1 11:0.333333 12:-0.320755 
-1 -1 1:-1 2:0.541667 3:1 4:-0.333333 5:0.245283 6:-0.452055 7:-1 8:-1 9:-0.251908 10:1 11:-1 12:1 
-1 -0.93730373418379709 1:-1 2:-1 3:0.5 4:-1 5:0.333333 6:-0.132075 7:0.328767 8:1 9:1 10:0.312977 11:-1 12:-0.741935 
-1 -1 1:-0.175573 2:1 3:0.16129 4:-0.333333 5:-1 6:0.291667 7:-1 8:0.333333 9:-0.509434 10:-0.762557 11:1 12:-1 
-1 -1 1:-1 2:0.0992366 3:1 4:-1 5:-1 6:-1 7:0.375 8:1 9:-0.333333 10:-0.509434 11:-0.292237 12:-1 
-1 -0.9145120559230272 1:-0.0377358 2:-0.511416 3:1 4:1 5:0.206107 6:-1 7:-0.258065 8:1 9:-1 10:0.5 11:0.166667 12:1 
-1 -1 1:1 2:0.0566038 3:-0.315068 4:-1 5:1 6:-0.374046 7:1 8:-0.806452 9:-0.333333 10:0.5 11:-0.0833333 12:1 
-1 -1 1:-1 2:-0.333333 3:-0.207547 4:-0.118721 5:1 6:1 7:0.236641 8:-1 9:-1 10:-1 11:0.333333 12:-1 
-1 -1 1:-0.25 2:1 3:0.333333 4:-0.735849 5:-0.465753 6:-1 7:-1 8:0.236641 9:-1 10:-1 11:-1 12:-1 
-1 -0.6374747628133085 1:-1 2:0.333333 3:1 4:1 5:-0.509434 6:-0.388128 7:-1 8:-1 9:0.0534351 10:1 11:0.16129 12:-0.333333 
-1 -0.75701668782571763 1:-0.396226 2:-0.178082 3:-1 4:-1 5:0.40458 6:-1 7:-1 8:-1 9:-1 10:-1 11:-0.125 12:1 
-1 -1 1:-0.645161 2:-1 3:-1 4:-1 5:-0.375 6:-1 7:0.333333 8:-0.735849 9:-0.931507 10:-1 11:-1 12:0.587786 
-1 -1 1:-1 2:-1 3:-1 4:-1 5:-1 6:0.166667 7:1 8:1 9:0.339623 10:-0.255708 11:1 12:1 
-1 -1 1:0.312977 2:-1 3:-0.16129 4:0.333333 5:1 6:0.25 7:1 8:1 9:-0.132075 10:-0.767123 11:-1 12:-1 
-1 -1 1:0.251908 2:-1 3:-1 4:-1 5:-1 6:-1 7:0.291667 8:-1 9:1 10:0.207547 11:-0.182648 12:-1 
-1 -1 1:-0.228311 2:-1 3:-1 4:0.389313 5:-1 6:-1 7:-1 8:-1 9:-1 10:-0.166667 11:-1 12:-0.333333 
-1 -0.98976293644573121 1:1 2:0.5 3:-1 4:0.333333 5:0.245283 6:0.0684932 7:-1 8:1 9:0.221374 10:-1 11:-0.741935 12:-1 
-1 -0.84754509842694847 1:-1 2:-1 3:0.0416667 4:1 5:0.333333 6:-0.415094 7:-0.328767 8:-1 9:1 10:0.236641 11:-1 12:-0.83871 
-1 -1 1:-1 2:-1 3:-0.333333 4:-1 5:0.375 6:1 7:1 8:-0.509434 9:-0.356164 10:-1 11:-1 12:-0.572519 
-1 -1 1:-1 2:-0.967742 3:-1 4:-1 5:-0.0416667 6:1 7:-0.333333 8:-0.245283 9:-0.657534 10:-1 11:-1 12:0.328244 
-1 -0.99923170789379578 1:-0.452055 2:-1 3:1 4:-0.618321 5:1 6:-0.290323 7:1 8:-0.333333 9:-1 10:0.0416667 11:1 12:0.333333 
-1 -1 1:0.125 2:1 3:1 4:-0.415094 5:-0.438356 6:1 7:1 8:0.114504 9:1 10:-0.612903 11:-0.333333 12:-1 
-1 -0.98303503846779061 1:-0.791667 2:-1 3:-0.333333 4:-0.54717 5:-0.616438 6:-1 7:-1 8:0.847328 9:-1 10:-0.774194 11:-1 12:-1 
-1 -0.71400695107563694 1:-1 2:0.166667 3:1 4:1 5:-0.283019 6:-0.630137 7:-1 8:-1 9:0.480916 10:1 11:-1 12:-1 
-1 -0.80377059017606323 1:1 2:-0.354839 3:0.333333 4:1 5:-0.0416667 6:1 7:1 8:-0.660377 9:-0.525114 10:-1 11:-1 12:0.358779 
-1 -1 1:0.557252 2:-1 3:0.0322581 4:-1 5:0.333333 6:1 7:-0.5 8:-1 9:0.333333 10:-0.660377 11:-0.351598 12:-1 
-1 -0.93225190713873707 1:1 2:0.541985 3:1 4:-1 5:-1 6:-1 7:-1 8:-0.5 9:1 10:0.333333 11:-0.660377 12:-0.43379 
-1 -0.54196878890571554 1:-1 2:-1 3:0.648855 4:-1 5:-1 6:-1 7:-1 8:-1 9:-0.125 10:-1 11:0.333333 12:-0.509434 
-1 -1 1:-0.575342 2:-1 3:-1 4:0.328244 5:-1 6:-0.483871 7:-1 8:-1 9:0.0416667 10:-1 11:0.333333 12:-0.735849 
-1 -0.66034591692271183 1:-0.356164 2:-1 3:1 4:0.465649 5:-1 6:-1 7:-1 8:-1 9:-1 10:0.458333 11:-1 12:1 
-1 -0.9462427744535421 1:-0.333333 2:-0.792453 3:-0.643836 4:-1 5:-1 6:0.541985 7:-1 8:-1 9:-1 10:-1 11:-1 12:0.0833333 
-1 -0.80828821986865107 1:-1 2:0.125 3:1 4:-1 5:-0.509434 6:-0.694064 7:-1 8:1 9:0.389313 10:-1 11:-0.387097 12:-1 
-1 -0.84443264235829441 1:1 2:0.541667 3:-1 4:1 5:0.584906 6:-0.534247 7:1 8:-1 9:0.435115 10:1 11:-0.677419 12:0.333333 
-1 -1 1:1 2:0.375 3:-1 4:1 5:0.0566038 6:-0.461187 7:-1 8:-1 9:0.267176 10:1 11:-0.548387 12:-1 
-1 -0.99882716552052608 1:0.333333 2:1 3:-0.416667 4:1 5:1 6:-0.698113 7:-0.611872 8:-1 9:-1 10:0.374046 11:-1 12:-1 
-1 -0.8629576272527214 1:-1 2:-1 3:-1 4:-1 5:-0.125 6:-1 7:1 8:-0.698113 9:-0.415525 10:-1 11:1 12:0.343511 
-1 -0.99759403411848557 1:0.572519 2:-1 3:-0.548387 4:-0.333333 5:-1 6:0.666667 7:1 8:-1 9:0.245283 10:-0.506849 11:1 12:1 
-1 -0.85484060711320042 1:-0.175573 2:1 3:-0.709677 4:0.333333 5:-1 6:0.625 7:-1 8:0.333333 9:-0.509434 10:-0.611872 11:-1 12:1 
-1 -1 1:-0.328244 2:-1 3:-0.516129 4:-1 5:-1 6:-0.791667 7:1 8:-1 9:-0.54717 10:-0.744292 11:-1 12:1 
-1 -0.67327879395231371 1:0.572519 2:-1 3:-1 4:-1 5:-1 6:-1 7:0.375 8:-1 9:1 10:-0.169811 11:-0.232877 12:1 
-1 -0.724287583396509 1:-1 2:-0.221374 3:1 4:0.354839 5:1 6:1 7:-0.291667 8:1 9:0.333333 10:0.0566038 11:-0.520548 12:-1 
-1 -0.93250536936908235 1:-1 2:0.40458 3:-1 4:-0.935484 5:0.333333 6:1 7:-0.125 8:1 9:0.333333 10:-0.339623 11:-0.680365 12:-1 
-1 -0.82184732466691512 1:-0.789954 2:-1 3:1 4:0.328244 5:-1 6:-1 7:-1 8:-1 9:1 10:-0.458333 11:-1 12:1 
-1 -1 1:-0.849057 2:-0.365297 3:-1 4:1 5:-0.221374 6:-1 7:-0.806452 8:-1 9:-1 10:1 11:0.333333 12:-0.320755 
-1 -0.49623586277251724 1:-0.320755 2:-0.136986 3:-1 4:-1 5:0.389313 6:-1 7:-0.387097 8:-1 9:-0.333333 10:-1 11:0.125 12:1 
-1 -0.90675475839612873 1:1 2:-0.735849 3:-0.511416 4:1 5:-1 6:0.160305 7:-1 8:-0.967742 9:-1 10:1 11:1 12:0.375 
-1 -1 1:-1 2:1 3:-0.132075 4:0.223744 5:-1 6:1 7:0.312977 8:-1 9:-0.612903 10:-1 11:-1 12:0.708333 
-1 -0.69765660671542151 1:-1 2:-1 3:1 4:-0.208333 5:1 6:0.333333 7:-0.433962 8:-0.410959 9:1 10:-1 11:0.587786 12:-1 
-1 -0.56764720330006269 1:-1 2:-1 3:0.333333 4:-1 5:0.0833333 6:-1 7:-0.333333 8:-0.226415 9:-0.43379 10:-1 11:1 12:0.374046 
-1 -0.98326189193542335 1:0.333333 2:-0.320755 3:-0.43379 4:-1 5:-1 6:0.770992 7:-1 8:0.129032 9:1 10:-1 11:-1 12:0.25 
-1 -1 1:1 2:1 3:-0.358491 4:-0.589041 5:-1 6:1 7:-0.0839695 8:1 9:-0.290323 10:1 11:1 12:-1 
-1 -0.84848155772388445 1:-1 2:0.416667 3:-1 4:0.333333 5:-0.226415 6:-0.424658 7:-1 8:1 9:0.541985 10:-1 11:-1 12:-1 
-1 -1 1:1 2:-0.0967742 3:-0.333333 4:1 5:0.5 6:1 7:1 8:-0.226415 9:-0.415525 10:-1 11:1 12:-0.145038 
-1 -0.83159839739128394 1:-1 2:-0.0967742 3:-0.333333 4:1 5:0.166667 6:1 7:0.333333 8:0.0566038 9:-0.808219 10:-1 11:-1 12:0.572519 
-1 -1 1:-1 2:0.694656 3:-1 4:-0.548387 5:-1 6:-1 7:-1 8:-0.5 9:1 10:-0.333333 11:-0.226415 12:-0.648402 
-1 -0.83024357199576604 1:1 2:1 3:-0.00763359 4:1 5:-0.0322581 6:-1 7:1 8:0.208333 9:-1 10:-1 11:0.0566038 12:-0.283105 
-1 -0.83755500231473468 1:1 2:1 3:0.389313 4:-1 5:-0.677419 6:-1 7:-1 8:-1 9:-0.0416667 10:1 11:-1 12:-0.54717 
-1 -0.63657453023053268 1:-0.388128 2:-1 3:1 4:0.740458 5:-1 6:-1 7:-1 8:-1 9:-1 10:-0.0416667 11:1 12:1 
-1 -1 1:-0.358491 2:-0.410959 3:-1 4:-1 5:0.374046 6:1 7:-1 8:-1 9:-0.333333 10:1 11:0.375 12:1 
-1 -0.97756690108019095 1:-1 2:0.625 3:1 4:0.333333 5:0.622642 6:-0.324201 7:1 8:1 9:0.206107 10:1 11:-0.483871 12:-1 
-1 -1 1:1 2:0.78626 3:-1 4:-1 5:-1 6:-1 7:-1 8:-0.375 9:1 10:1 11:-0.660377 12:-0.251142 
-1 -1 1:0.0566038 2:-0.607306 3:1 4:-1 5:0.312977 6:-1 7:-0.483871 8:-1 9:-1 10:-1 11:0.75 12:-1 
-1 -1 1:1 2:0.333333 3:0.0566038 4:-0.465753 5:1 6:-1 7:0.00763359 8:1 9:-0.677419 10:-1 11:-1 12:0.0833333 
-1 -0.94908329399866631 1:1 2:1 3:-0.283019 4:0.0365297 5:-1 6:-1 7:-0.0687023 8:1 9:-0.612903 10:-0.333333 11:1 12:0.458333 
